digraph Tree {
node [shape=box] ;
0 [label="relative_messages_to_poi <= 0.1663\nentropy = 0.546\nsamples = 143\nvalue = [125, 18]\nclass = no_poi"] ;
1 [label="total_stock_value <= 11254008.0\nentropy = 0.2335\nsamples = 105\nvalue = [101, 4]\nclass = no_poi"] ;
0 -> 1 [labeldistance=2.5, labelangle=45, headlabel="True"] ;
2 [label="bonus <= 794375.0\nentropy = 0.1403\nsamples = 101\nvalue = [99, 2]\nclass = no_poi"] ;
1 -> 2 ;
3 [label="entropy = 0.0\nsamples = 81\nvalue = [81, 0]\nclass = no_poi"] ;
2 -> 3 ;
4 [label="entropy = 0.469\nsamples = 20\nvalue = [18, 2]\nclass = no_poi"] ;
2 -> 4 ;
5 [label="salary <= 210141.0\nentropy = 1.0\nsamples = 4\nvalue = [2, 2]\nclass = no_poi"] ;
1 -> 5 ;
6 [label="entropy = 0.0\nsamples = 2\nvalue = [0, 2]\nclass = poi"] ;
5 -> 6 ;
7 [label="entropy = 0.0\nsamples = 2\nvalue = [2, 0]\nclass = no_poi"] ;
5 -> 7 ;
8 [label="bonus <= 1100000.0\nentropy = 0.9495\nsamples = 38\nvalue = [24, 14]\nclass = no_poi"] ;
0 -> 8 [labeldistance=2.5, labelangle=-45, headlabel="False"] ;
9 [label="salary <= 211268.0\nentropy = 0.7219\nsamples = 25\nvalue = [20, 5]\nclass = no_poi"] ;
8 -> 9 ;
10 [label="entropy = 0.0\nsamples = 8\nvalue = [8, 0]\nclass = no_poi"] ;
9 -> 10 ;
11 [label="entropy = 0.874\nsamples = 17\nvalue = [12, 5]\nclass = no_poi"] ;
9 -> 11 ;
12 [label="salary <= 296565.0\nentropy = 0.8905\nsamples = 13\nvalue = [4, 9]\nclass = poi"] ;
8 -> 12 ;
13 [label="entropy = 0.0\nsamples = 5\nvalue = [0, 5]\nclass = poi"] ;
12 -> 13 ;
14 [label="entropy = 1.0\nsamples = 8\nvalue = [4, 4]\nclass = no_poi"] ;
12 -> 14 ;
}